10.0 -64.30699
20.0 -74.521964
30.0 -82.807588
40.0 -77.792638
50.0 -56.377694
60.0 -75.47534
70.0 -73.211042
80.0 -71.591592
90.0 -71.357488
100.0 -69.884436
110.0 -69.898342
120.0 -68.619302
130.0 -67.984656
140.0 -67.453418
150.0 -65.620062
160.0 -66.475804
170.0 -66.099778
180.0 -65.81602
190.0 -65.514656
200.0 -65.233152
210.0 -64.997352
220.0 -64.645324
230.0 -64.517748
240.0 -63.834546
250.0 -63.498252
260.0 -63.216444
270.0 -63.637772
280.0 -63.292626
290.0 -62.754152
300.0 -63.400902
310.0 -62.88003
320.0 -62.832782
330.0 -62.774626
340.0 -62.90739
350.0 -62.71969
360.0 -62.9234
370.0 -63.253256
380.0 -63.563696
390.0 -63.761368
400.0 -64.203844
410.0 -65.05698
420.0 -65.774464
430.0 -66.423732
440.0 -67.585954
450.0 -69.47984
460.0 -71.967178
470.0 -75.264062
480.0 -74.442196
490.0 -71.656802
500.0 -67.7177
510.0 -64.395532
520.0 -61.34886
530.0 -59.170622
540.0 -56.97221
550.0 -54.86886
560.0 -53.195654
570.0 -51.41725
580.0 -49.907912
590.0 -48.346486
600.0 -46.91206
610.0 -45.544342
620.0 -44.199214
630.0 -42.89941
640.0 -41.627284
650.0 -40.384066
660.0 -39.153806
670.0 -37.954572
680.0 -36.768138
690.0 -35.621758
700.0 -34.471684
710.0 -33.346848
720.0 -32.22694
730.0 -31.12072
740.0 -30.02847
750.0 -28.937118
760.0 -27.860484
770.0 -26.780344
780.0 -25.712514
790.0 -24.654356
800.0 -23.592142
810.0 -22.534284
820.0 -21.481354
830.0 -20.435248
840.0 -19.386558
850.0 -18.344262
860.0 -17.299466
870.0 -16.259218
880.0 -15.219974
890.0 -14.18989
900.0 -13.162194
910.0 -12.13789
920.0 -11.1337404
930.0 -10.1492744
940.0 -9.1795258
950.0 -8.2418772
960.0 -7.3349068
970.0 -6.4754498
980.0 -5.6724628
990.0 -4.9303718
1000.0 -4.2583592
1010.0 -3.6558074
1020.0 -3.1342408
1030.0 -2.690561
1040.0 -2.3192144
1050.0 -2.0116902
1060.0 -1.766952
1070.0 -1.5743612
1080.0 -1.421414
1090.0 -1.3035832
1100.0 -1.2131568
1110.0 -1.1446894
1120.0 -1.0904796
1130.0 -1.0490028
1140.0 -1.01571508
1150.0 -0.98573848
1160.0 -0.96205596
1170.0 -0.94008676
1180.0 -0.91992832
1190.0 -0.90075506
1200.0 -0.88251688
1210.0 -0.8631506
1220.0 -0.84489464
1230.0 -0.82498744
1240.0 -0.80626068
1250.0 -0.78530716
1260.0 -0.76950012
1270.0 -0.74953054
1280.0 -0.73344164
1290.0 -0.7134628
1300.0 -0.69724282
1310.0 -0.6811166
1320.0 -0.66580728
1330.0 -0.65017928
1340.0 -0.63721336
1350.0 -0.62345782
1360.0 -0.61218904
1370.0 -0.6004151
1380.0 -0.5917426
1390.0 -0.58001836
1400.0 -0.57204598
1410.0 -0.56502256
1420.0 -0.55950462
1430.0 -0.55320364
1440.0 -0.5451417
1450.0 -0.54395556
1460.0 -0.5387468
1470.0 -0.53711982
1480.0 -0.53630312
1490.0 -0.53361186
1500.0 -0.53351338
1510.0 -0.53220214
1520.0 -0.53329728
1530.0 -0.53409748
1540.0 -0.532037
1550.0 -0.53609242
1560.0 -0.53574876
1570.0 -0.53866646
1580.0 -0.5409052
1590.0 -0.54554216
1600.0 -0.54728972
1610.0 -0.54900544
1620.0 -0.55250934
1630.0 -0.55465224
1640.0 -0.55779508
1650.0 -0.56116956
1660.0 -0.56213098
1670.0 -0.56584512
1680.0 -0.56756282
1690.0 -0.570892
1700.0 -0.5752014
1710.0 -0.5758196
1720.0 -0.57841644
1730.0 -0.58170008
1740.0 -0.58469954
1750.0 -0.58614618
1760.0 -0.58697954
1770.0 -0.58778984
1780.0 -0.59075668
1790.0 -0.5928645
1800.0 -0.59313698
1810.0 -0.5941675
1820.0 -0.5970707
1830.0 -0.59460178
1840.0 -0.59412158
1850.0 -0.5972944
1860.0 -0.59480356
1870.0 -0.59671036
1880.0 -0.59578162
1890.0 -0.59560302
1900.0 -0.5919213
1910.0 -0.59094558
1920.0 -0.59071628
1930.0 -0.58921394
1940.0 -0.58748316
1950.0 -0.5858828
1960.0 -0.58461132
1970.0 -0.57969938
1980.0 -0.57981534
1990.0 -0.57632078
2000.0 -0.57455826
2010.0 -0.57107754
2020.0 -0.56964062
2030.0 -0.5643515
2040.0 -0.56220162
2050.0 -0.55764232
2060.0 -0.55523764
2070.0 -0.55181454
2080.0 -0.54904472
2090.0 -0.54575402
2100.0 -0.54117542
2110.0 -0.53735012
2120.0 -0.5334463
2130.0 -0.5305704
2140.0 -0.52640504
2150.0 -0.52015796
2160.0 -0.51942534
2170.0 -0.5133203
2180.0 -0.5080644
2190.0 -0.50322172
2200.0 -0.49830328
2210.0 -0.49327346
2220.0 -0.48838222
2230.0 -0.48204122
2240.0 -0.47906458
2250.0 -0.47249426
2260.0 -0.46683702
2270.0 -0.4646256
2280.0 -0.46038408
2290.0 -0.45419
2300.0 -0.44789226
2310.0 -0.44627766
2320.0 -0.43825814
2330.0 -0.43392874
2340.0 -0.42976074
2350.0 -0.42378204
2360.0 -0.41889766
2370.0 -0.41373622
2380.0 -0.41000362
2390.0 -0.40338736
2400.0 -0.39924886
2410.0 -0.39409008
2420.0 -0.3887628
2430.0 -0.38430786
2440.0 -0.37665214
2450.0 -0.37583678
2460.0 -0.37065012
2470.0 -0.36413536
2480.0 -0.36052416
2490.0 -0.35569388
2500.0 -0.35098898
2510.0 -0.3458316
2520.0 -0.34127788
2530.0 -0.33831702
2540.0 -0.33248908
2550.0 -0.32920586
2560.0 -0.32370372
2570.0 -0.3203458
2580.0 -0.31527612
2590.0 -0.31218434
2600.0 -0.3077432
2610.0 -0.30531712
2620.0 -0.29946346
2630.0 -0.29424564
2640.0 -0.29267698
2650.0 -0.28995582
2660.0 -0.28395048
2670.0 -0.28277396
2680.0 -0.28082372
2690.0 -0.27703864
2700.0 -0.27222478
2710.0 -0.26954576
2720.0 -0.26771816
2730.0 -0.26586466
2740.0 -0.26154206
2750.0 -0.26178126
2760.0 -0.25740932
2770.0 -0.25621822
2780.0 -0.25464176
2790.0 -0.25276402
2800.0 -0.2509589
2810.0 -0.248293
2820.0 -0.24690182
2830.0 -0.2460283
2840.0 -0.24622956
2850.0 -0.24330266
2860.0 -0.24159814
2870.0 -0.24355902
2880.0 -0.24128934
2890.0 -0.24120782
2900.0 -0.2413311
2910.0 -0.24085586
2920.0 -0.23921338
2930.0 -0.23982164
2940.0 -0.23965144
2950.0 -0.24068632
2960.0 -0.24079734
2970.0 -0.23908756
2980.0 -0.24279032
2990.0 -0.24266402
3000.0 -0.24363286
3010.0 -0.2463935
3020.0 -0.24846652
3030.0 -0.2488454
3040.0 -0.2511345
3050.0 -0.25314784
3060.0 -0.25317176
3070.0 -0.25522432
3080.0 -0.25821644
3090.0 -0.26150522
3100.0 -0.26493756
3110.0 -0.26694572
3120.0 -0.26951654
3130.0 -0.27172264
3140.0 -0.27680454
3150.0 -0.27959772
3160.0 -0.28323648
3170.0 -0.28557658
3180.0 -0.28811272
3190.0 -0.29393946
3200.0 -0.2990106
3210.0 -0.30325012
3220.0 -0.30752688
3230.0 -0.31094562
3240.0 -0.31455446
3250.0 -0.31985196
3260.0 -0.32351542
3270.0 -0.32878878
3280.0 -0.33281992
3290.0 -0.3371751
3300.0 -0.34247894
3310.0 -0.3475864
3320.0 -0.3513046
3330.0 -0.35759676
3340.0 -0.36300678
3350.0 -0.37019908
3360.0 -0.37636492
3370.0 -0.37843436
3380.0 -0.38749358
3390.0 -0.3933134
3400.0 -0.3996138
3410.0 -0.40613118
3420.0 -0.41250272
3430.0 -0.4207321
3440.0 -0.42828906
3450.0 -0.43411402
3460.0 -0.44048592
3470.0 -0.4480005
3480.0 -0.45594556
3490.0 -0.46374468
3500.0 -0.4702842
3510.0 -0.47740366
3520.0 -0.484365
3530.0 -0.49313146
3540.0 -0.4972377
3550.0 -0.50870802
3560.0 -0.51554858
3570.0 -0.52519314
3580.0 -0.53023802
3590.0 -0.53998494
3600.0 -0.54909728
3610.0 -0.55677756
3620.0 -0.56612604
3630.0 -0.57458158
3640.0 -0.58294586
3650.0 -0.59198478
3660.0 -0.6007781
3670.0 -0.60933732
3680.0 -0.61803046
3690.0 -0.62768614
3700.0 -0.6345096
3710.0 -0.64369106
3720.0 -0.65155698
3730.0 -0.66053082
3740.0 -0.66991568
3750.0 -0.67699938
3760.0 -0.68781198
3770.0 -0.69925286
3780.0 -0.70830814
3790.0 -0.71753368
3800.0 -0.72715852
3810.0 -0.73625624
3820.0 -0.7464894
3830.0 -0.7551607
3840.0 -0.76372858
3850.0 -0.77232226
3860.0 -0.78390432
3870.0 -0.79168922
3880.0 -0.80115708
3890.0 -0.80992226
3900.0 -0.82048758
3910.0 -0.83077454
3920.0 -0.8406822
3930.0 -0.85048036
3940.0 -0.86101076
3950.0 -0.87175528
3960.0 -0.8807956
3970.0 -0.88883362
3980.0 -0.9013124
3990.0 -0.91169656
4000.0 -0.9227416
4010.0 -0.93318576
4020.0 -0.9433562
4030.0 -0.95359722
4040.0 -0.96529848
4050.0 -0.97689076
4060.0 -0.98625412
4070.0 -0.99742156
4080.0 -1.00682562
4090.0 -1.0148387
4100.0 -1.0276532
4110.0 -1.03798376
4120.0 -1.04770466
4130.0 -1.05834228
4140.0 -1.067652
4150.0 -1.0782814
4160.0 -1.089762
4170.0 -1.0983392
4180.0 -1.1071388
4190.0 -1.1171126
4200.0 -1.132057
4210.0 -1.1428206
4220.0 -1.1500416
4230.0 -1.1606406
4240.0 -1.1711918
4250.0 -1.1811864
4260.0 -1.193177
4270.0 -1.2054242
4280.0 -1.215354
4290.0 -1.2268478
4300.0 -1.2378954
4310.0 -1.2457142
4320.0 -1.2573734
4330.0 -1.2682408
4340.0 -1.2785442
4350.0 -1.2899728
4360.0 -1.298474
4370.0 -1.3097008
4380.0 -1.32069
4390.0 -1.332004
4400.0 -1.3415478
4410.0 -1.3535466
4420.0 -1.3641732
4430.0 -1.3758606
4440.0 -1.387876
4450.0 -1.4000572
4460.0 -1.410402
4470.0 -1.4216502
4480.0 -1.4336742
4490.0 -1.4466796
4500.0 -1.456695
4510.0 -1.4681574
4520.0 -1.4818004
4530.0 -1.494517
4540.0 -1.5075452
4550.0 -1.5152448
4560.0 -1.5278782
4570.0 -1.5402896
4580.0 -1.5546764
4590.0 -1.5665474
4600.0 -1.575609
4610.0 -1.5867314
4620.0 -1.5987056
4630.0 -1.6084376
4640.0 -1.6204218
4650.0 -1.6345456
4660.0 -1.6454754
4670.0 -1.6564952
4680.0 -1.664599
4690.0 -1.6753894
4700.0 -1.6883856
4710.0 -1.6983966
4720.0 -1.7107658
4730.0 -1.7232238
4740.0 -1.7341734
4750.0 -1.7431986
4760.0 -1.7542116
4770.0 -1.7665666
4780.0 -1.7790732
4790.0 -1.7893254
4800.0 -1.8026938
4810.0 -1.8145814
4820.0 -1.8267054
4830.0 -1.8351116
4840.0 -1.8473686
4850.0 -1.8606736
4860.0 -1.8728862
4870.0 -1.8849188
4880.0 -1.8924962
4890.0 -1.9032762
4900.0 -1.9152782
4910.0 -1.9273218
4920.0 -1.9385666
4930.0 -1.9506972
4940.0 -1.9627666
4950.0 -1.9715862
4960.0 -1.9833218
4970.0 -1.9948168
4980.0 -2.0067542
4990.0 -2.0202324
5000.0 -2.0320272
5010.0 -2.0442368
5020.0 -2.055058
5030.0 -2.0656348
5040.0 -2.0759648
5050.0 -2.0900934
5060.0 -2.1015582
5070.0 -2.1144954
5080.0 -2.1253702
5090.0 -2.1368884
5100.0 -2.1500638
5110.0 -2.1632626
5120.0 -2.1764924
5130.0 -2.189095
5140.0 -2.2021806
5150.0 -2.2143868
5160.0 -2.2266862
5170.0 -2.239239
5180.0 -2.2527836
5190.0 -2.2662562
5200.0 -2.2757896
5210.0 -2.2819764
5220.0 -2.2949024
5230.0 -2.306741
5240.0 -2.320034
5250.0 -2.3298946
5260.0 -2.3450938
5270.0 -2.3549314
5280.0 -2.3671964
5290.0 -2.3794322
5300.0 -2.3910816
5310.0 -2.4009562
5320.0 -2.4175264
5330.0 -2.4276878
5340.0 -2.4390654
5350.0 -2.4513528
5360.0 -2.4622796
5370.0 -2.4738662
5380.0 -2.484227
5390.0 -2.4966568
5400.0 -2.5063654
5410.0 -2.512835
5420.0 -2.5206008
5430.0 -2.5323842
5440.0 -2.5443268
5450.0 -2.553112
5460.0 -2.5648508
5470.0 -2.5728132
5480.0 -2.5837266
5490.0 -2.5935606
5500.0 -2.6058604
5510.0 -2.6205674
5520.0 -2.6333178
5530.0 -2.6474022
5540.0 -2.65934
5550.0 -2.6714418
5560.0 -2.6853938
5570.0 -2.7000898
5580.0 -2.7144518
5590.0 -2.7288982
5600.0 -2.7354436
5610.0 -2.747767
5620.0 -2.759345
5630.0 -2.7726172
5640.0 -2.7838282
5650.0 -2.7982402
5660.0 -2.8064338
5670.0 -2.8160474
5680.0 -2.8293804
5690.0 -2.8417998
5700.0 -2.8562016
5710.0 -2.8665482
5720.0 -2.8818696
5730.0 -2.8918388
5740.0 -2.9007758
5750.0 -2.9135768
5760.0 -2.9271998
5770.0 -2.9374024
5780.0 -2.9514236
5790.0 -2.9606548
5800.0 -2.9728698
5810.0 -2.9822082
5820.0 -2.993974
5830.0 -3.0067004
5840.0 -3.0184622
5850.0 -3.03136
5860.0 -3.0436788
5870.0 -3.055694
5880.0 -3.070527
5890.0 -3.0830998
5900.0 -3.0957296
5910.0 -3.1106142
5920.0 -3.1227206
5930.0 -3.1346492
5940.0 -3.1472192
5950.0 -3.1577806
5960.0 -3.1708532
5970.0 -3.1835762
5980.0 -3.1943192
5990.0 -3.2039074
6000.0 -3.2140154
